digraph Tree {
node [shape=box, style="filled, rounded", color="black", fontname="helvetica"] ;
edge [fontname="helvetica"] ;
0 [label="eye_color <= 0.5\ngini = 0.92\nsamples = 16\nvalue = [1, 0, 2, 0, 1, 1, 2, 0, 0, 1, 1, 1, 1, 0\n0, 1, 1, 1, 4, 3, 2, 1, 0, 0]\nclass = kyle", fillcolor="#fdf6fe"] ;
1 [label="gender <= 0.5\ngini = 0.61\nsamples = 4\nvalue = [0, 0, 0, 0, 0, 0, 0, 0, 0, 0, 0, 0, 1, 0\n0, 1, 0, 1, 4, 0, 0, 0, 0, 0]\nclass = kyle", fillcolor="#eb9cf2"] ;
0 -> 1 [labeldistance=2.5, labelangle=45, headlabel="True"] ;
2 [label="gini = 0.0\nsamples = 1\nvalue = [0, 0, 0, 0, 0, 0, 0, 0, 0, 0, 0, 0, 0, 0\n0, 0, 0, 1, 0, 0, 0, 0, 0, 0]\nclass = jake", fillcolor="#ac39e5"] ;
1 -> 2 ;
3 [label="glasses <= 0.5\ngini = 0.5\nsamples = 3\nvalue = [0, 0, 0, 0, 0, 0, 0, 0, 0, 0, 0, 0, 1, 0\n0, 1, 0, 0, 4, 0, 0, 0, 0, 0]\nclass = kyle", fillcolor="#e788ef"] ;
1 -> 3 ;
4 [label="gini = 0.0\nsamples = 1\nvalue = [0, 0, 0, 0, 0, 0, 0, 0, 0, 0, 0, 0, 0, 0\n0, 1, 0, 0, 0, 0, 0, 0, 0, 0]\nclass = zachary", fillcolor="#5639e5"] ;
3 -> 4 ;
5 [label="hair_color <= 3.0\ngini = 0.32\nsamples = 2\nvalue = [0, 0, 0, 0, 0, 0, 0, 0, 0, 0, 0, 0, 1, 0\n0, 0, 0, 0, 4, 0, 0, 0, 0, 0]\nclass = kyle", fillcolor="#e16aec"] ;
3 -> 5 ;
6 [label="gini = 0.0\nsamples = 1\nvalue = [0, 0, 0, 0, 0, 0, 0, 0, 0, 0, 0, 0, 0, 0\n0, 0, 0, 0, 4, 0, 0, 0, 0, 0]\nclass = kyle", fillcolor="#d739e5"] ;
5 -> 6 ;
7 [label="gini = 0.0\nsamples = 1\nvalue = [0, 0, 0, 0, 0, 0, 0, 0, 0, 0, 0, 0, 1, 0\n0, 0, 0, 0, 0, 0, 0, 0, 0, 0]\nclass = emily", fillcolor="#399de5"] ;
5 -> 7 ;
8 [label="gender <= 0.5\ngini = 0.9\nsamples = 12\nvalue = [1, 0, 2, 0, 1, 1, 2, 0, 0, 1, 1, 1, 0, 0\n0, 0, 1, 0, 0, 3, 2, 1, 0, 0]\nclass = william", fillcolor="#fdf2fb"] ;
0 -> 8 [labeldistance=2.5, labelangle=-45, headlabel="False"] ;
9 [label="glasses <= 0.5\ngini = 0.65\nsamples = 3\nvalue = [0, 0, 2, 0, 0, 0, 0, 0, 0, 0, 0, 0, 0, 0\n0, 0, 0, 0, 0, 3, 2, 0, 0, 0]\nclass = william", fillcolor="#fad7f4"] ;
8 -> 9 ;
10 [label="eyebrows <= 0.5\ngini = 0.48\nsamples = 2\nvalue = [0, 0, 2, 0, 0, 0, 0, 0, 0, 0, 0, 0, 0, 0\n0, 0, 0, 0, 0, 3, 0, 0, 0, 0]\nclass = william", fillcolor="#f6bded"] ;
9 -> 10 ;
11 [label="gini = 0.0\nsamples = 1\nvalue = [0, 0, 2, 0, 0, 0, 0, 0, 0, 0, 0, 0, 0, 0\n0, 0, 0, 0, 0, 0, 0, 0, 0, 0]\nclass = rachael", fillcolor="#e5d739"] ;
10 -> 11 ;
12 [label="gini = 0.0\nsamples = 1\nvalue = [0, 0, 0, 0, 0, 0, 0, 0, 0, 0, 0, 0, 0, 0\n0, 0, 0, 0, 0, 3, 0, 0, 0, 0]\nclass = william", fillcolor="#e539c8"] ;
10 -> 12 ;
13 [label="gini = 0.0\nsamples = 1\nvalue = [0, 0, 0, 0, 0, 0, 0, 0, 0, 0, 0, 0, 0, 0\n0, 0, 0, 0, 0, 0, 2, 0, 0, 0]\nclass = joseph", fillcolor="#e5399d"] ;
9 -> 13 ;
14 [label="glasses <= 0.5\ngini = 0.88\nsamples = 9\nvalue = [1, 0, 0, 0, 1, 1, 2, 0, 0, 1, 1, 1, 0, 0\n0, 0, 1, 0, 0, 0, 0, 1, 0, 0]\nclass = david", fillcolor="#ebfce9"] ;
8 -> 14 ;
15 [label="facial_hair <= 0.5\ngini = 0.86\nsamples = 8\nvalue = [0, 0, 0, 0, 1, 1, 2, 0, 0, 1, 1, 1, 0, 0\n0, 0, 1, 0, 0, 0, 0, 1, 0, 0]\nclass = david", fillcolor="#e8fce6"] ;
14 -> 15 ;
16 [label="hair_color <= 2.0\ngini = 0.62\nsamples = 3\nvalue = [0, 0, 0, 0, 1, 0, 2, 0, 0, 0, 0, 0, 0, 0\n0, 0, 1, 0, 0, 0, 0, 0, 0, 0]\nclass = david", fillcolor="#c2f6bd"] ;
15 -> 16 ;
17 [label="gini = 0.0\nsamples = 1\nvalue = [0, 0, 0, 0, 0, 0, 2, 0, 0, 0, 0, 0, 0, 0\n0, 0, 0, 0, 0, 0, 0, 0, 0, 0]\nclass = david", fillcolor="#47e539"] ;
16 -> 17 ;
18 [label="hair_color <= 3.5\ngini = 0.5\nsamples = 2\nvalue = [0, 0, 0, 0, 1, 0, 0, 0, 0, 0, 0, 0, 0, 0\n0, 0, 1, 0, 0, 0, 0, 0, 0, 0]\nclass = james", fillcolor="#ffffff"] ;
16 -> 18 ;
19 [label="gini = 0.0\nsamples = 1\nvalue = [0, 0, 0, 0, 0, 0, 0, 0, 0, 0, 0, 0, 0, 0\n0, 0, 1, 0, 0, 0, 0, 0, 0, 0]\nclass = tyler", fillcolor="#8139e5"] ;
18 -> 19 ;
20 [label="gini = 0.0\nsamples = 1\nvalue = [0, 0, 0, 0, 1, 0, 0, 0, 0, 0, 0, 0, 0, 0\n0, 0, 0, 0, 0, 0, 0, 0, 0, 0]\nclass = james", fillcolor="#9de539"] ;
18 -> 20 ;
21 [label="hair_color <= 2.0\ngini = 0.8\nsamples = 5\nvalue = [0, 0, 0, 0, 0, 1, 0, 0, 0, 1, 1, 1, 0, 0\n0, 0, 0, 0, 0, 0, 0, 1, 0, 0]\nclass = andy", fillcolor="#ffffff"] ;
15 -> 21 ;
22 [label="gini = 0.5\nsamples = 2\nvalue = [0, 0, 0, 0, 0, 1, 0, 0, 0, 0, 1, 0, 0, 0\n0, 0, 0, 0, 0, 0, 0, 0, 0, 0]\nclass = andy", fillcolor="#ffffff"] ;
21 -> 22 ;
23 [label="eyebrows <= 0.5\ngini = 0.67\nsamples = 3\nvalue = [0, 0, 0, 0, 0, 0, 0, 0, 0, 1, 0, 1, 0, 0\n0, 0, 0, 0, 0, 0, 0, 1, 0, 0]\nclass = justin", fillcolor="#ffffff"] ;
21 -> 23 ;
24 [label="gini = 0.0\nsamples = 1\nvalue = [0, 0, 0, 0, 0, 0, 0, 0, 0, 1, 0, 0, 0, 0\n0, 0, 0, 0, 0, 0, 0, 0, 0, 0]\nclass = justin", fillcolor="#39e5ac"] ;
23 -> 24 ;
25 [label="hair_color <= 3.5\ngini = 0.5\nsamples = 2\nvalue = [0, 0, 0, 0, 0, 0, 0, 0, 0, 0, 0, 1, 0, 0\n0, 0, 0, 0, 0, 0, 0, 1, 0, 0]\nclass = brandon", fillcolor="#ffffff"] ;
23 -> 25 ;
26 [label="gini = 0.0\nsamples = 1\nvalue = [0, 0, 0, 0, 0, 0, 0, 0, 0, 0, 0, 1, 0, 0\n0, 0, 0, 0, 0, 0, 0, 0, 0, 0]\nclass = brandon", fillcolor="#39c8e5"] ;
25 -> 26 ;
27 [label="gini = 0.0\nsamples = 1\nvalue = [0, 0, 0, 0, 0, 0, 0, 0, 0, 0, 0, 0, 0, 0\n0, 0, 0, 0, 0, 0, 0, 1, 0, 0]\nclass = connor", fillcolor="#e53972"] ;
25 -> 27 ;
28 [label="gini = 0.0\nsamples = 1\nvalue = [1, 0, 0, 0, 0, 0, 0, 0, 0, 0, 0, 0, 0, 0\n0, 0, 0, 0, 0, 0, 0, 0, 0, 0]\nclass = megan", fillcolor="#e58139"] ;
14 -> 28 ;
}